<?xml version="1.0"?>
<opencv_storage>
<cascade>
  <stageType>BOOST</stageType>
  <featureType>LBP</featureType>
  <height>64</height>
  <width>64</width>
  <stageParams>
    <boostType>GAB</boostType>
    <minHitRate>9.9500000476837158e-01</minHitRate>
    <maxFalseAlarm>5.0000000000000000e-01</maxFalseAlarm>
    <weightTrimRate>9.4999999999999996e-01</weightTrimRate>
    <maxDepth>1</maxDepth>
    <maxWeakCount>100</maxWeakCount></stageParams>
  <featureParams>
    <maxCatCount>256</maxCatCount>
    <featSize>1</featSize></featureParams>
  <stageNum>8</stageNum>
  <stages>
    <!-- stage 0 -->
    <_>
      <maxWeakCount>2</maxWeakCount>
      <stageThreshold>-3.3084875345230103e-01</stageThreshold>
      <weakClassifiers>
        <_>
          <internalNodes>
            0 -1 3 -578814465 -178927105 -753172193 -16269521 -643695633
            -73166421 -841643073 -269489233</internalNodes>
          <leafValues>
            -9.6605569124221802e-01 8.6615186929702759e-01</leafValues></_>
        <_>
          <internalNodes>
            0 -1 15 -33554433 -547893057 -751446561 -14437 -288441361
            -75005813 -69207041 2147483647</internalNodes>
          <leafValues>
            -9.9716347455978394e-01 6.3520693778991699e-01</leafValues></_></weakClassifiers></_>
    <!-- stage 1 -->
    <_>
      <maxWeakCount>2</maxWeakCount>
      <stageThreshold>-2.7765503525733948e-01</stageThreshold>
      <weakClassifiers>
        <_>
          <internalNodes>
            0 -1 8 -1 2002779103 -544088609 -15215841 -776209409
            -721422081 1237663743 -544849</internalNodes>
          <leafValues>
            -9.3215644359588623e-01 7.4053382873535156e-01</leafValues></_>
        <_>
          <internalNodes>
            0 -1 16 -1 -1637 2060440575 -2100225 -2101249 -1319493
            -67109889 2147478527</internalNodes>
          <leafValues>
            -9.9787628650665283e-01 6.5450143814086914e-01</leafValues></_></weakClassifiers></_>
    <!-- stage 2 -->
    <_>
      <maxWeakCount>2</maxWeakCount>
      <stageThreshold>-3.0843853950500488e-01</stageThreshold>
      <weakClassifiers>
        <_>
          <internalNodes>
            0 -1 5 -673980493 2144571067 -271360101 1068224955
            2008284159 -72356357 1973377535 -269488897</internalNodes>
          <leafValues>
            -9.4807964563369751e-01 6.9075828790664673e-01</leafValues></_>
        <_>
          <internalNodes>
            0 -1 6 -168347649 -6489204 -578734721 -7341970 -1880376833
            -637682789 -269501441 -312086177</internalNodes>
          <leafValues>
            -9.6862411499023438e-01 6.3964110612869263e-01</leafValues></_></weakClassifiers></_>
    <!-- stage 3 -->
    <_>
      <maxWeakCount>2</maxWeakCount>
      <stageThreshold>-2.0442184805870056e-01</stageThreshold>
      <weakClassifiers>
        <_>
          <internalNodes>
            0 -1 13 -46137345 -48377029 697538047 -705573037 -820521473
            -80763457 -1892820513 -6299701</internalNodes>
          <leafValues>
            -8.5297012329101562e-01 7.5636613368988037e-01</leafValues></_>
        <_>
          <internalNodes>
            0 -1 4 231372146 -1092624931 -111551009 -2158129 -84279305
            -1342917 -6307841 -1281</internalNodes>
          <leafValues>
            -9.2704141139984131e-01 6.4854830503463745e-01</leafValues></_></weakClassifiers></_>
    <!-- stage 4 -->
    <_>
      <maxWeakCount>2</maxWeakCount>
      <stageThreshold>-3.8552045822143555e-01</stageThreshold>
      <weakClassifiers>
        <_>
          <internalNodes>
            0 -1 2 -543425313 1532985183 -341906689 -1342503041
            -91563177 -90189545 -302646285 -306184257</internalNodes>
          <leafValues>
            -9.3548387289047241e-01 5.4198473691940308e-01</leafValues></_>
        <_>
          <internalNodes>
            0 -1 9 -673841153 -772284449 -115867777 -72091777 -612237339
            -3174195 2075093772 -5244113</internalNodes>
          <leafValues>
            -9.2750519514083862e-01 5.7405364513397217e-01</leafValues></_></weakClassifiers></_>
    <!-- stage 5 -->
    <_>
      <maxWeakCount>2</maxWeakCount>
      <stageThreshold>-3.3211058378219604e-01</stageThreshold>
      <weakClassifiers>
        <_>
          <internalNodes>
            0 -1 0 -639640065 -3963513 -2129607019 -754855679 -393020997
            -460289920 -666122261 2144070287</internalNodes>
          <leafValues>
            -9.8622798919677734e-01 5.7158005237579346e-01</leafValues></_>
        <_>
          <internalNodes>
            0 -1 7 -235151873 -78025731 -150925255 902533230 -1148262277
            -771186429 -1147555878 -504440221</internalNodes>
          <leafValues>
            -8.8959693908691406e-01 6.5411740541458130e-01</leafValues></_></weakClassifiers></_>
    <!-- stage 6 -->
    <_>
      <maxWeakCount>3</maxWeakCount>
      <stageThreshold>-9.0591239929199219e-01</stageThreshold>
      <weakClassifiers>
        <_>
          <internalNodes>
            0 -1 14 -1610115063 1292173315 129 -1827716605 -2147319600
            201326722 2063630470 -754216373</internalNodes>
          <leafValues>
            -8.2048898935317993e-01 9.0701341629028320e-01</leafValues></_>
        <_>
          <internalNodes>
            0 -1 11 -46933038 -641658752 2048 -1044315892 475240
            402784320 -2141159285 -1920106290</internalNodes>
          <leafValues>
            -8.7644094228744507e-01 8.2341760396957397e-01</leafValues></_>
        <_>
          <internalNodes>
            0 -1 1 1085849 -783810540 286266389 -786890736 8388747
            -939524064 34987 1527447560</internalNodes>
          <leafValues>
            -9.2870712280273438e-01 7.9101753234863281e-01</leafValues></_></weakClassifiers></_>
    <!-- stage 7 -->
    <_>
      <maxWeakCount>2</maxWeakCount>
      <stageThreshold>9.9502485245466232e-03</stageThreshold>
      <weakClassifiers>
        <_>
          <internalNodes>
            0 -1 12 4112 -1006632960 0 0 -1879048190 32768 0 -2071986166</internalNodes>
          <leafValues>
            -9.9004977941513062e-01 1.</leafValues></_>
        <_>
          <internalNodes>
            0 -1 10 536936640 -1056964608 0 16777216 4096 0 8388616
            -2071986046</internalNodes>
          <leafValues>
            -9.8884147405624390e-01 1.</leafValues></_></weakClassifiers></_></stages>
  <features>
    <_>
      <rect>
        0 0 2 2</rect></_>
    <_>
      <rect>
        0 61 6 1</rect></_>
    <_>
      <rect>
        1 8 15 16</rect></_>
    <_>
      <rect>
        3 2 19 20</rect></_>
    <_>
      <rect>
        5 0 15 8</rect></_>
    <_>
      <rect>
        7 5 16 14</rect></_>
    <_>
      <rect>
        8 16 16 16</rect></_>
    <_>
      <rect>
        8 19 13 11</rect></_>
    <_>
      <rect>
        9 10 16 15</rect></_>
    <_>
      <rect>
        12 3 17 19</rect></_>
    <_>
      <rect>
        15 24 16 11</rect></_>
    <_>
      <rect>
        21 24 11 11</rect></_>
    <_>
      <rect>
        22 27 10 10</rect></_>
    <_>
      <rect>
        23 23 6 6</rect></_>
    <_>
      <rect>
        25 19 6 9</rect></_>
    <_>
      <rect>
        61 0 1 2</rect></_>
    <_>
      <rect>
        61 57 1 2</rect></_></features></cascade>
</opencv_storage>
